digraph Tree {
node [shape=box, style="filled, rounded", color="black", fontname=helvetica] ;
edge [fontname=helvetica] ;
0 [label="Uniformity of Cell Size <= 2.5\ngini = 0.456\nsamples = 349\nvalue = [226, 123]\nclass = C", fillcolor="#f3c6a5"] ;
1 [label="Clump Thickness <= 7.5\ngini = 0.054\nsamples = 215\nvalue = [209, 6]\nclass = C", fillcolor="#e6853f"] ;
0 -> 1 [labeldistance=2.5, labelangle=45, headlabel="True"] ;
2 [label="Single Epithelial Cell Size <= 5.5\ngini = 0.019\nsamples = 211\nvalue = [209, 2]\nclass = C", fillcolor="#e5823b"] ;
1 -> 2 ;
3 [label="Normal Nucleoli <= 8.0\ngini = 0.009\nsamples = 210\nvalue = [209, 1]\nclass = C", fillcolor="#e5823a"] ;
2 -> 3 ;
4 [label="gini = 0.0\nsamples = 209\nvalue = [209, 0]\nclass = C", fillcolor="#e58139"] ;
3 -> 4 ;
5 [label="gini = 0.0\nsamples = 1\nvalue = [0, 1]\nclass = l", fillcolor="#399de5"] ;
3 -> 5 ;
6 [label="gini = 0.0\nsamples = 1\nvalue = [0, 1]\nclass = l", fillcolor="#399de5"] ;
2 -> 6 ;
7 [label="gini = 0.0\nsamples = 4\nvalue = [0, 4]\nclass = l", fillcolor="#399de5"] ;
1 -> 7 ;
8 [label="Uniformity of Cell Shape <= 3.5\ngini = 0.222\nsamples = 134\nvalue = [17, 117]\nclass = l", fillcolor="#56abe9"] ;
0 -> 8 [labeldistance=2.5, labelangle=-45, headlabel="False"] ;
9 [label="Bland Chromatin <= 3.5\ngini = 0.499\nsamples = 25\nvalue = [12, 13]\nclass = l", fillcolor="#f0f7fd"] ;
8 -> 9 ;
10 [label="Mitoses <= 2.5\ngini = 0.165\nsamples = 11\nvalue = [10, 1]\nclass = C", fillcolor="#e88e4d"] ;
9 -> 10 ;
11 [label="gini = 0.0\nsamples = 9\nvalue = [9, 0]\nclass = C", fillcolor="#e58139"] ;
10 -> 11 ;
12 [label="Bare Nuclei <= 6.5\ngini = 0.5\nsamples = 2\nvalue = [1, 1]\nclass = C", fillcolor="#ffffff"] ;
10 -> 12 ;
13 [label="gini = 0.0\nsamples = 1\nvalue = [0, 1]\nclass = l", fillcolor="#399de5"] ;
12 -> 13 ;
14 [label="gini = 0.0\nsamples = 1\nvalue = [1, 0]\nclass = C", fillcolor="#e58139"] ;
12 -> 14 ;
15 [label="Clump Thickness <= 1.5\ngini = 0.245\nsamples = 14\nvalue = [2, 12]\nclass = l", fillcolor="#5aade9"] ;
9 -> 15 ;
16 [label="gini = 0.0\nsamples = 1\nvalue = [1, 0]\nclass = C", fillcolor="#e58139"] ;
15 -> 16 ;
17 [label="Bare Nuclei <= 2.5\ngini = 0.142\nsamples = 13\nvalue = [1, 12]\nclass = l", fillcolor="#49a5e7"] ;
15 -> 17 ;
18 [label="ID Number <= 1106675.0\ngini = 0.444\nsamples = 3\nvalue = [1, 2]\nclass = l", fillcolor="#9ccef2"] ;
17 -> 18 ;
19 [label="gini = 0.0\nsamples = 1\nvalue = [1, 0]\nclass = C", fillcolor="#e58139"] ;
18 -> 19 ;
20 [label="gini = 0.0\nsamples = 2\nvalue = [0, 2]\nclass = l", fillcolor="#399de5"] ;
18 -> 20 ;
21 [label="gini = 0.0\nsamples = 10\nvalue = [0, 10]\nclass = l", fillcolor="#399de5"] ;
17 -> 21 ;
22 [label="Marginal Adhesion <= 1.5\ngini = 0.088\nsamples = 109\nvalue = [5, 104]\nclass = l", fillcolor="#43a2e6"] ;
8 -> 22 ;
23 [label="Clump Thickness <= 7.0\ngini = 0.426\nsamples = 13\nvalue = [4, 9]\nclass = l", fillcolor="#91c9f1"] ;
22 -> 23 ;
24 [label="Bland Chromatin <= 3.5\ngini = 0.444\nsamples = 6\nvalue = [4, 2]\nclass = C", fillcolor="#f2c09c"] ;
23 -> 24 ;
25 [label="gini = 0.0\nsamples = 4\nvalue = [4, 0]\nclass = C", fillcolor="#e58139"] ;
24 -> 25 ;
26 [label="gini = 0.0\nsamples = 2\nvalue = [0, 2]\nclass = l", fillcolor="#399de5"] ;
24 -> 26 ;
27 [label="gini = 0.0\nsamples = 7\nvalue = [0, 7]\nclass = l", fillcolor="#399de5"] ;
23 -> 27 ;
28 [label="Bare Nuclei <= 1.5\ngini = 0.021\nsamples = 96\nvalue = [1, 95]\nclass = l", fillcolor="#3b9ee5"] ;
22 -> 28 ;
29 [label="ID Number <= 1099686.5\ngini = 0.198\nsamples = 9\nvalue = [1, 8]\nclass = l", fillcolor="#52a9e8"] ;
28 -> 29 ;
30 [label="ID Number <= 1072215.0\ngini = 0.375\nsamples = 4\nvalue = [1, 3]\nclass = l", fillcolor="#7bbeee"] ;
29 -> 30 ;
31 [label="gini = 0.0\nsamples = 3\nvalue = [0, 3]\nclass = l", fillcolor="#399de5"] ;
30 -> 31 ;
32 [label="gini = 0.0\nsamples = 1\nvalue = [1, 0]\nclass = C", fillcolor="#e58139"] ;
30 -> 32 ;
33 [label="gini = 0.0\nsamples = 5\nvalue = [0, 5]\nclass = l", fillcolor="#399de5"] ;
29 -> 33 ;
34 [label="gini = 0.0\nsamples = 87\nvalue = [0, 87]\nclass = l", fillcolor="#399de5"] ;
28 -> 34 ;
}