digraph Tree {
node [shape=box, style="filled, rounded", color="black", fontname=helvetica] ;
edge [fontname=helvetica] ;
0 [label="Frequency of alcohol consumption <= 0.829\ngini = 0.269\nsamples = 50\nvalue = [42, 8]\nclass = C", fillcolor="#ea995f"] ;
1 [label="Season <= -0.502\ngini = 0.35\nsamples = 31\nvalue = [24, 7]\nclass = C", fillcolor="#eda673"] ;
0 -> 1 [labeldistance=2.5, labelangle=45, headlabel="True"] ;
2 [label="gini = 0.0\nsamples = 8\nvalue = [8, 0]\nclass = C", fillcolor="#e58139"] ;
1 -> 2 ;
3 [label="gini = 0.423\nsamples = 23\nvalue = [16, 7]\nclass = C", fillcolor="#f0b890"] ;
1 -> 3 ;
4 [label="Smoking <= 0.41\ngini = 0.1\nsamples = 19\nvalue = [18, 1]\nclass = C", fillcolor="#e68844"] ;
0 -> 4 [labeldistance=2.5, labelangle=-45, headlabel="False"] ;
5 [label="gini = 0.0\nsamples = 16\nvalue = [16, 0]\nclass = C", fillcolor="#e58139"] ;
4 -> 5 ;
6 [label="gini = 0.444\nsamples = 3\nvalue = [2, 1]\nclass = C", fillcolor="#f2c09c"] ;
4 -> 6 ;
}